<?xml version="1.0"?>
<opencv_storage>
<cascade>
  <stageType>BOOST</stageType>
  <featureType>HAAR</featureType>
  <height>50</height>
  <width>50</width>
  <stageParams>
    <boostType>GAB</boostType>
    <minHitRate>9.9998998641967773e-01</minHitRate>
    <maxFalseAlarm>5.0000000000000000e-01</maxFalseAlarm>
    <weightTrimRate>9.4999999999999996e-01</weightTrimRate>
    <maxDepth>1</maxDepth>
    <maxWeakCount>100</maxWeakCount></stageParams>
  <featureParams>
    <maxCatCount>0</maxCatCount>
    <featSize>1</featSize>
    <mode>BASIC</mode></featureParams>
  <stageNum>4</stageNum>
  <stages>
    <!-- stage 0 -->
    <_>
      <maxWeakCount>2</maxWeakCount>
      <stageThreshold>-1.1602140963077545e-01</stageThreshold>
      <weakClassifiers>
        <_>
          <internalNodes>
            0 -1 1 6.6141309216618538e-03</internalNodes>
          <leafValues>
            -9.3684208393096924e-01 8.4615385532379150e-01</leafValues></_>
        <_>
          <internalNodes>
            0 -1 4 -6.2170356977730989e-04</internalNodes>
          <leafValues>
            8.2082068920135498e-01 -9.5491224527359009e-01</leafValues></_></weakClassifiers></_>
    <!-- stage 1 -->
    <_>
      <maxWeakCount>2</maxWeakCount>
      <stageThreshold>-7.6017424464225769e-02</stageThreshold>
      <weakClassifiers>
        <_>
          <internalNodes>
            0 -1 6 6.2385370256379247e-04</internalNodes>
          <leafValues>
            -8.7878787517547607e-01 1.</leafValues></_>
        <_>
          <internalNodes>
            0 -1 3 -2.7886871248483658e-03</internalNodes>
          <leafValues>
            8.0277043581008911e-01 -8.6972975730895996e-01</leafValues></_></weakClassifiers></_>
    <!-- stage 2 -->
    <_>
      <maxWeakCount>2</maxWeakCount>
      <stageThreshold>-8.6800061166286469e-02</stageThreshold>
      <weakClassifiers>
        <_>
          <internalNodes>
            0 -1 0 -7.0216000080108643e-02</internalNodes>
          <leafValues>
            1. -8.6000001430511475e-01</leafValues></_>
        <_>
          <internalNodes>
            0 -1 7 -9.2823093291372061e-04</internalNodes>
          <leafValues>
            7.7319991588592529e-01 -1.</leafValues></_></weakClassifiers></_>
    <!-- stage 3 -->
    <_>
      <maxWeakCount>2</maxWeakCount>
      <stageThreshold>-2.1851123869419098e-01</stageThreshold>
      <weakClassifiers>
        <_>
          <internalNodes>
            0 -1 2 -1.5140037983655930e-02</internalNodes>
          <leafValues>
            1. -8.4158414602279663e-01</leafValues></_>
        <_>
          <internalNodes>
            0 -1 5 -3.1615030020475388e-03</internalNodes>
          <leafValues>
            6.2307292222976685e-01 -1.</leafValues></_></weakClassifiers></_></stages>
  <features>
    <_>
      <rects>
        <_>
          0 26 38 15 -1.</_>
        <_>
          0 31 38 5 3.</_></rects>
      <tilted>0</tilted></_>
    <_>
      <rects>
        <_>
          11 22 6 20 -1.</_>
        <_>
          13 22 2 20 3.</_></rects>
      <tilted>0</tilted></_>
    <_>
      <rects>
        <_>
          13 27 12 17 -1.</_>
        <_>
          17 27 4 17 3.</_></rects>
      <tilted>0</tilted></_>
    <_>
      <rects>
        <_>
          20 6 2 40 -1.</_>
        <_>
          20 6 1 20 2.</_>
        <_>
          21 26 1 20 2.</_></rects>
      <tilted>0</tilted></_>
    <_>
      <rects>
        <_>
          24 19 2 10 -1.</_>
        <_>
          24 19 1 5 2.</_>
        <_>
          25 24 1 5 2.</_></rects>
      <tilted>0</tilted></_>
    <_>
      <rects>
        <_>
          27 12 3 27 -1.</_>
        <_>
          28 12 1 27 3.</_></rects>
      <tilted>0</tilted></_>
    <_>
      <rects>
        <_>
          35 15 3 1 -1.</_>
        <_>
          36 15 1 1 3.</_></rects>
      <tilted>0</tilted></_>
    <_>
      <rects>
        <_>
          40 22 3 2 -1.</_>
        <_>
          41 22 1 2 3.</_></rects>
      <tilted>0</tilted></_></features></cascade>
</opencv_storage>
